digraph Tree {
node [shape=box] ;
0 [label="MileageAirline <= 1.5\ngini = 0.811\nsamples = 235\nvalue = [31, 63, 56, 40, 22, 12, 11]"] ;
1 [label="TripDuration <= 15.5\ngini = 0.794\nsamples = 51\nvalue = [1, 10, 8, 9, 15, 8, 0]"] ;
0 -> 1 [labeldistance=2.5, labelangle=45, headlabel="True"] ;
2 [label="Occupation <= 1.5\ngini = 0.782\nsamples = 46\nvalue = [1, 10, 6, 6, 15, 8, 0]"] ;
1 -> 2 ;
3 [label="ModeTransport <= 5.5\ngini = 0.375\nsamples = 8\nvalue = [0, 2, 0, 0, 6, 0, 0]"] ;
2 -> 3 ;
4 [label="gini = 0.0\nsamples = 5\nvalue = [0, 0, 0, 0, 5, 0, 0]"] ;
3 -> 4 ;
5 [label="gini = 0.444\nsamples = 3\nvalue = [0, 2, 0, 0, 1, 0, 0]"] ;
3 -> 5 ;
6 [label="Destination <= 3.5\ngini = 0.805\nsamples = 38\nvalue = [1, 8, 6, 6, 9, 8, 0]"] ;
2 -> 6 ;
7 [label="AccessTime <= 58.0\ngini = 0.798\nsamples = 36\nvalue = [1, 8, 4, 6, 9, 8, 0]"] ;
6 -> 7 ;
8 [label="Airfare <= 58.5\ngini = 0.752\nsamples = 25\nvalue = [1, 5, 0, 4, 7, 8, 0]"] ;
7 -> 8 ;
9 [label="gini = 0.727\nsamples = 17\nvalue = [1, 3, 0, 4, 2, 7, 0]"] ;
8 -> 9 ;
10 [label="gini = 0.531\nsamples = 8\nvalue = [0, 2, 0, 0, 5, 1, 0]"] ;
8 -> 10 ;
11 [label="AccessCost <= 11321.0\ngini = 0.727\nsamples = 11\nvalue = [0, 3, 4, 2, 2, 0, 0]"] ;
7 -> 11 ;
12 [label="gini = 0.667\nsamples = 6\nvalue = [0, 0, 2, 2, 2, 0, 0]"] ;
11 -> 12 ;
13 [label="gini = 0.48\nsamples = 5\nvalue = [0, 3, 2, 0, 0, 0, 0]"] ;
11 -> 13 ;
14 [label="gini = 0.0\nsamples = 2\nvalue = [0, 0, 2, 0, 0, 0, 0]"] ;
6 -> 14 ;
15 [label="gini = 0.48\nsamples = 5\nvalue = [0, 0, 2, 3, 0, 0, 0]"] ;
1 -> 15 ;
16 [label="Age <= 59.5\ngini = 0.789\nsamples = 184\nvalue = [30, 53, 48, 31, 7, 4, 11]"] ;
0 -> 16 [labeldistance=2.5, labelangle=-45, headlabel="False"] ;
17 [label="NoTransport <= 1.5\ngini = 0.775\nsamples = 160\nvalue = [21, 46, 48, 28, 5, 4, 8]"] ;
16 -> 17 ;
18 [label="AccessTime <= 47.5\ngini = 0.763\nsamples = 135\nvalue = [11, 42, 43, 22, 5, 4, 8]"] ;
17 -> 18 ;
19 [label="Occupation <= 2.5\ngini = 0.791\nsamples = 64\nvalue = [8, 16, 15, 17, 3, 3, 2]"] ;
18 -> 19 ;
20 [label="AccessCost <= 3087.5\ngini = 0.747\nsamples = 30\nvalue = [1, 4, 9, 11, 2, 1, 2]"] ;
19 -> 20 ;
21 [label="gini = 0.463\nsamples = 11\nvalue = [0, 0, 7, 4, 0, 0, 0]"] ;
20 -> 21 ;
22 [label="gini = 0.781\nsamples = 19\nvalue = [1, 4, 2, 7, 2, 1, 2]"] ;
20 -> 22 ;
23 [label="AccessCost <= 12500.0\ngini = 0.766\nsamples = 34\nvalue = [7, 12, 6, 6, 1, 2, 0]"] ;
19 -> 23 ;
24 [label="gini = 0.713\nsamples = 26\nvalue = [4, 12, 5, 2, 1, 2, 0]"] ;
23 -> 24 ;
25 [label="gini = 0.594\nsamples = 8\nvalue = [3, 0, 1, 4, 0, 0, 0]"] ;
23 -> 25 ;
26 [label="FlyingCompanion <= 1.5\ngini = 0.695\nsamples = 71\nvalue = [3, 26, 28, 5, 2, 1, 6]"] ;
18 -> 26 ;
27 [label="AccessTime <= 105.0\ngini = 0.768\nsamples = 31\nvalue = [3, 5, 12, 5, 2, 0, 4]"] ;
26 -> 27 ;
28 [label="gini = 0.657\nsamples = 22\nvalue = [2, 2, 12, 3, 1, 0, 2]"] ;
27 -> 28 ;
29 [label="gini = 0.765\nsamples = 9\nvalue = [1, 3, 0, 2, 1, 0, 2]"] ;
27 -> 29 ;
30 [label="Age <= 43.5\ngini = 0.561\nsamples = 40\nvalue = [0, 21, 16, 0, 0, 1, 2]"] ;
26 -> 30 ;
31 [label="gini = 0.495\nsamples = 31\nvalue = [0, 20, 9, 0, 0, 0, 2]"] ;
30 -> 31 ;
32 [label="gini = 0.37\nsamples = 9\nvalue = [0, 1, 7, 0, 0, 1, 0]"] ;
30 -> 32 ;
33 [label="Age <= 46.5\ngini = 0.717\nsamples = 25\nvalue = [10, 4, 5, 6, 0, 0, 0]"] ;
17 -> 33 ;
34 [label="ModeTransport <= 1.5\ngini = 0.657\nsamples = 17\nvalue = [8, 3, 5, 1, 0, 0, 0]"] ;
33 -> 34 ;
35 [label="gini = 0.0\nsamples = 2\nvalue = [0, 2, 0, 0, 0, 0, 0]"] ;
34 -> 35 ;
36 [label="NoTripsLastYear <= 5.0\ngini = 0.596\nsamples = 15\nvalue = [8, 1, 5, 1, 0, 0, 0]"] ;
34 -> 36 ;
37 [label="gini = 0.473\nsamples = 13\nvalue = [8, 0, 5, 0, 0, 0, 0]"] ;
36 -> 37 ;
38 [label="gini = 0.5\nsamples = 2\nvalue = [0, 1, 0, 1, 0, 0, 0]"] ;
36 -> 38 ;
39 [label="TripDuration <= 4.5\ngini = 0.531\nsamples = 8\nvalue = [2, 1, 0, 5, 0, 0, 0]"] ;
33 -> 39 ;
40 [label="gini = 0.5\nsamples = 2\nvalue = [1, 1, 0, 0, 0, 0, 0]"] ;
39 -> 40 ;
41 [label="Occupation <= 10.0\ngini = 0.278\nsamples = 6\nvalue = [1, 0, 0, 5, 0, 0, 0]"] ;
39 -> 41 ;
42 [label="gini = 0.0\nsamples = 4\nvalue = [0, 0, 0, 4, 0, 0, 0]"] ;
41 -> 42 ;
43 [label="gini = 0.5\nsamples = 2\nvalue = [1, 0, 0, 1, 0, 0, 0]"] ;
41 -> 43 ;
44 [label="NoTripsLastYear <= 1.5\ngini = 0.736\nsamples = 24\nvalue = [9, 7, 0, 3, 2, 0, 3]"] ;
16 -> 44 ;
45 [label="TripDuration <= 5.5\ngini = 0.648\nsamples = 18\nvalue = [9, 5, 0, 2, 2, 0, 0]"] ;
44 -> 45 ;
46 [label="NoTripsLastYear <= 0.5\ngini = 0.541\nsamples = 14\nvalue = [9, 2, 0, 2, 1, 0, 0]"] ;
45 -> 46 ;
47 [label="gini = 0.0\nsamples = 5\nvalue = [5, 0, 0, 0, 0, 0, 0]"] ;
46 -> 47 ;
48 [label="ModeTransport <= 2.5\ngini = 0.691\nsamples = 9\nvalue = [4, 2, 0, 2, 1, 0, 0]"] ;
46 -> 48 ;
49 [label="gini = 0.444\nsamples = 3\nvalue = [0, 1, 0, 2, 0, 0, 0]"] ;
48 -> 49 ;
50 [label="gini = 0.5\nsamples = 6\nvalue = [4, 1, 0, 0, 1, 0, 0]"] ;
48 -> 50 ;
51 [label="gini = 0.375\nsamples = 4\nvalue = [0, 3, 0, 0, 1, 0, 0]"] ;
45 -> 51 ;
52 [label="DepartureTime <= 2.5\ngini = 0.611\nsamples = 6\nvalue = [0, 2, 0, 1, 0, 0, 3]"] ;
44 -> 52 ;
53 [label="gini = 0.444\nsamples = 3\nvalue = [0, 2, 0, 1, 0, 0, 0]"] ;
52 -> 53 ;
54 [label="gini = 0.0\nsamples = 3\nvalue = [0, 0, 0, 0, 0, 0, 3]"] ;
52 -> 54 ;
}